0.232658061352832,-0.357493287782727,-0.456087639859397,-1.06638325793024,0.127401044460439,0.155147767524779,0.127989928479381,0.175268594200419,0.182848608962643,0.230753368191379,0.45745893036041,-0.439554546053218,-0.118641531296272,0.375562555381526,0.173891999909247,-0.423624337743394,-0.359763331252733,0.234125100782642,0.438136082109754,0.3060589140655,-0.279332992519287,-0.265502936142714,-0.403776639764932,0.0878998035191081,-0.206823616014424,0.247612110560972,-0.300543040148563,0.0413238583350868,0.503495976111643,-0.560884884780481,0.00899480857306646,-0.185666870578766,-0.192649563276442,0.250026557828335,0.352252094235387,0.129331883296013,0.326129429365474,0.23839279561824,-0.0531636534374323,0.392916848920742,-0.484107460476219,-0.252713944013778,0.400195893287645,0.312191871933345,-0.428883186590246,0.12465019060872,-0.367892799337119,0.0373140890079687,-0.195714012011697,0.243996053757367,-0.00562539366581764,-0.297014697686547,-0.319890244912978,-0.392987176599204,0.074325277279302,0.248701111742384,0.300744926627704,0.341402762122699,0.0650068491907434,0.0695697950636068,-0.235941057321988,0.589927848703811,0.0362030254027901,0.346850225964652,0.322326820023113,-0.0823362447997564,0.093259505800727,-0.202089282566143,0.301212672205516,0.212389500894805,0.0889383652685335,0.199742151763923,0.682232415752858,0.14496504140244,0.25927822148099,0.632649040931225,0.119167010686202,-0.229692751645866,-0.523718759300094,-1.00341422569586,-0.0121145495257531,-0.227590560161149,
